digraph Tree {
node [shape=box, style="filled, rounded", color="black", fontname=helvetica] ;
edge [fontname=helvetica] ;
0 [label="Age <= 44.5\nentropy = 0.96\nsamples = 320\nvalue = [199, 121]\nclass = 0", fillcolor="#e5813964"] ;
1 [label="Salary <= 90500.0\nentropy = 0.71\nsamples = 228\nvalue = [184, 44]\nclass = 0", fillcolor="#e58139c2"] ;
0 -> 1 [labeldistance=2.5, labelangle=45, headlabel="True"] ;
2 [label="Age <= 36.5\nentropy = 0.26\nsamples = 186\nvalue = [178, 8]\nclass = 0", fillcolor="#e58139f4"] ;
1 -> 2 ;
3 [label="entropy = 0.0\nsamples = 120\nvalue = [120, 0]\nclass = 0", fillcolor="#e58139ff"] ;
2 -> 3 ;
4 [label="Salary <= 67500.0\nentropy = 0.53\nsamples = 66\nvalue = [58, 8]\nclass = 0", fillcolor="#e58139dc"] ;
2 -> 4 ;
5 [label="entropy = 0.0\nsamples = 33\nvalue = [33, 0]\nclass = 0", fillcolor="#e58139ff"] ;
4 -> 5 ;
6 [label="Salary <= 83500.0\nentropy = 0.8\nsamples = 33\nvalue = [25, 8]\nclass = 0", fillcolor="#e58139ad"] ;
4 -> 6 ;
7 [label="Salary <= 70500.0\nentropy = 0.71\nsamples = 31\nvalue = [25, 6]\nclass = 0", fillcolor="#e58139c2"] ;
6 -> 7 ;
8 [label="entropy = 0.0\nsamples = 1\nvalue = [0, 1]\nclass = 1", fillcolor="#399de5ff"] ;
7 -> 8 ;
9 [label="Age <= 41.5\nentropy = 0.65\nsamples = 30\nvalue = [25, 5]\nclass = 0", fillcolor="#e58139cc"] ;
7 -> 9 ;
10 [label="Age <= 40.5\nentropy = 0.52\nsamples = 26\nvalue = [23, 3]\nclass = 0", fillcolor="#e58139de"] ;
9 -> 10 ;
11 [label="Salary <= 78500.0\nentropy = 0.63\nsamples = 19\nvalue = [16, 3]\nclass = 0", fillcolor="#e58139cf"] ;
10 -> 11 ;
12 [label="Salary <= 74500.0\nentropy = 0.7\nsamples = 16\nvalue = [13, 3]\nclass = 0", fillcolor="#e58139c4"] ;
11 -> 12 ;
13 [label="Age <= 39.5\nentropy = 0.47\nsamples = 10\nvalue = [9, 1]\nclass = 0", fillcolor="#e58139e3"] ;
12 -> 13 ;
14 [label="entropy = 0.0\nsamples = 8\nvalue = [8, 0]\nclass = 0", fillcolor="#e58139ff"] ;
13 -> 14 ;
15 [label="Salary <= 71500.0\nentropy = 1.0\nsamples = 2\nvalue = [1, 1]\nclass = 0", fillcolor="#e5813900"] ;
13 -> 15 ;
16 [label="entropy = 0.0\nsamples = 1\nvalue = [0, 1]\nclass = 1", fillcolor="#399de5ff"] ;
15 -> 16 ;
17 [label="entropy = 0.0\nsamples = 1\nvalue = [1, 0]\nclass = 0", fillcolor="#e58139ff"] ;
15 -> 17 ;
18 [label="Age <= 39.5\nentropy = 0.92\nsamples = 6\nvalue = [4, 2]\nclass = 0", fillcolor="#e581397f"] ;
12 -> 18 ;
19 [label="Gender <= 0.5\nentropy = 0.92\nsamples = 3\nvalue = [1, 2]\nclass = 1", fillcolor="#399de57f"] ;
18 -> 19 ;
20 [label="entropy = 0.0\nsamples = 2\nvalue = [0, 2]\nclass = 1", fillcolor="#399de5ff"] ;
19 -> 20 ;
21 [label="entropy = 0.0\nsamples = 1\nvalue = [1, 0]\nclass = 0", fillcolor="#e58139ff"] ;
19 -> 21 ;
22 [label="entropy = 0.0\nsamples = 3\nvalue = [3, 0]\nclass = 0", fillcolor="#e58139ff"] ;
18 -> 22 ;
23 [label="entropy = 0.0\nsamples = 3\nvalue = [3, 0]\nclass = 0", fillcolor="#e58139ff"] ;
11 -> 23 ;
24 [label="entropy = 0.0\nsamples = 7\nvalue = [7, 0]\nclass = 0", fillcolor="#e58139ff"] ;
10 -> 24 ;
25 [label="Salary <= 74000.0\nentropy = 1.0\nsamples = 4\nvalue = [2, 2]\nclass = 0", fillcolor="#e5813900"] ;
9 -> 25 ;
26 [label="entropy = 0.0\nsamples = 1\nvalue = [0, 1]\nclass = 1", fillcolor="#399de5ff"] ;
25 -> 26 ;
27 [label="Gender <= 0.5\nentropy = 0.92\nsamples = 3\nvalue = [2, 1]\nclass = 0", fillcolor="#e581397f"] ;
25 -> 27 ;
28 [label="Salary <= 77500.0\nentropy = 1.0\nsamples = 2\nvalue = [1, 1]\nclass = 0", fillcolor="#e5813900"] ;
27 -> 28 ;
29 [label="entropy = 0.0\nsamples = 1\nvalue = [1, 0]\nclass = 0", fillcolor="#e58139ff"] ;
28 -> 29 ;
30 [label="entropy = 0.0\nsamples = 1\nvalue = [0, 1]\nclass = 1", fillcolor="#399de5ff"] ;
28 -> 30 ;
31 [label="entropy = 0.0\nsamples = 1\nvalue = [1, 0]\nclass = 0", fillcolor="#e58139ff"] ;
27 -> 31 ;
32 [label="entropy = 0.0\nsamples = 2\nvalue = [0, 2]\nclass = 1", fillcolor="#399de5ff"] ;
6 -> 32 ;
33 [label="Salary <= 133500.0\nentropy = 0.59\nsamples = 42\nvalue = [6, 36]\nclass = 1", fillcolor="#399de5d4"] ;
1 -> 33 ;
34 [label="Salary <= 107500.0\nentropy = 0.75\nsamples = 28\nvalue = [6, 22]\nclass = 1", fillcolor="#399de5b9"] ;
33 -> 34 ;
35 [label="entropy = 0.0\nsamples = 10\nvalue = [0, 10]\nclass = 1", fillcolor="#399de5ff"] ;
34 -> 35 ;
36 [label="Gender <= 0.5\nentropy = 0.92\nsamples = 18\nvalue = [6, 12]\nclass = 1", fillcolor="#399de57f"] ;
34 -> 36 ;
37 [label="Age <= 30.5\nentropy = 1.0\nsamples = 10\nvalue = [5, 5]\nclass = 0", fillcolor="#e5813900"] ;
36 -> 37 ;
38 [label="entropy = 0.0\nsamples = 2\nvalue = [2, 0]\nclass = 0", fillcolor="#e58139ff"] ;
37 -> 38 ;
39 [label="Age <= 32.5\nentropy = 0.95\nsamples = 8\nvalue = [3, 5]\nclass = 1", fillcolor="#399de566"] ;
37 -> 39 ;
40 [label="entropy = 0.0\nsamples = 2\nvalue = [0, 2]\nclass = 1", fillcolor="#399de5ff"] ;
39 -> 40 ;
41 [label="Age <= 34.5\nentropy = 1.0\nsamples = 6\nvalue = [3, 3]\nclass = 0", fillcolor="#e5813900"] ;
39 -> 41 ;
42 [label="entropy = 0.0\nsamples = 1\nvalue = [1, 0]\nclass = 0", fillcolor="#e58139ff"] ;
41 -> 42 ;
43 [label="Age <= 42.5\nentropy = 0.97\nsamples = 5\nvalue = [2, 3]\nclass = 1", fillcolor="#399de555"] ;
41 -> 43 ;
44 [label="Salary <= 112500.0\nentropy = 0.81\nsamples = 4\nvalue = [1, 3]\nclass = 1", fillcolor="#399de5aa"] ;
43 -> 44 ;
45 [label="Age <= 40.0\nentropy = 1.0\nsamples = 2\nvalue = [1, 1]\nclass = 0", fillcolor="#e5813900"] ;
44 -> 45 ;
46 [label="entropy = 0.0\nsamples = 1\nvalue = [1, 0]\nclass = 0", fillcolor="#e58139ff"] ;
45 -> 46 ;
47 [label="entropy = 0.0\nsamples = 1\nvalue = [0, 1]\nclass = 1", fillcolor="#399de5ff"] ;
45 -> 47 ;
48 [label="entropy = 0.0\nsamples = 2\nvalue = [0, 2]\nclass = 1", fillcolor="#399de5ff"] ;
44 -> 48 ;
49 [label="entropy = 0.0\nsamples = 1\nvalue = [1, 0]\nclass = 0", fillcolor="#e58139ff"] ;
43 -> 49 ;
50 [label="Salary <= 110000.0\nentropy = 0.54\nsamples = 8\nvalue = [1, 7]\nclass = 1", fillcolor="#399de5db"] ;
36 -> 50 ;
51 [label="entropy = 0.0\nsamples = 1\nvalue = [1, 0]\nclass = 0", fillcolor="#e58139ff"] ;
50 -> 51 ;
52 [label="entropy = 0.0\nsamples = 7\nvalue = [0, 7]\nclass = 1", fillcolor="#399de5ff"] ;
50 -> 52 ;
53 [label="entropy = 0.0\nsamples = 14\nvalue = [0, 14]\nclass = 1", fillcolor="#399de5ff"] ;
33 -> 53 ;
54 [label="Salary <= 41500.0\nentropy = 0.64\nsamples = 92\nvalue = [15, 77]\nclass = 1", fillcolor="#399de5cd"] ;
0 -> 54 [labeldistance=2.5, labelangle=-45, headlabel="False"] ;
55 [label="Salary <= 22500.0\nentropy = 0.2\nsamples = 33\nvalue = [1, 32]\nclass = 1", fillcolor="#399de5f7"] ;
54 -> 55 ;
56 [label="Age <= 46.5\nentropy = 0.72\nsamples = 5\nvalue = [1, 4]\nclass = 1", fillcolor="#399de5bf"] ;
55 -> 56 ;
57 [label="Age <= 45.5\nentropy = 1.0\nsamples = 2\nvalue = [1, 1]\nclass = 0", fillcolor="#e5813900"] ;
56 -> 57 ;
58 [label="entropy = 0.0\nsamples = 1\nvalue = [0, 1]\nclass = 1", fillcolor="#399de5ff"] ;
57 -> 58 ;
59 [label="entropy = 0.0\nsamples = 1\nvalue = [1, 0]\nclass = 0", fillcolor="#e58139ff"] ;
57 -> 59 ;
60 [label="entropy = 0.0\nsamples = 3\nvalue = [0, 3]\nclass = 1", fillcolor="#399de5ff"] ;
56 -> 60 ;
61 [label="entropy = 0.0\nsamples = 28\nvalue = [0, 28]\nclass = 1", fillcolor="#399de5ff"] ;
55 -> 61 ;
62 [label="Age <= 52.5\nentropy = 0.79\nsamples = 59\nvalue = [14, 45]\nclass = 1", fillcolor="#399de5b0"] ;
54 -> 62 ;
63 [label="Salary <= 85000.0\nentropy = 0.94\nsamples = 34\nvalue = [12, 22]\nclass = 1", fillcolor="#399de574"] ;
62 -> 63 ;
64 [label="Age <= 48.5\nentropy = 0.99\nsamples = 14\nvalue = [8, 6]\nclass = 0", fillcolor="#e5813940"] ;
63 -> 64 ;
65 [label="Salary <= 55000.0\nentropy = 0.99\nsamples = 11\nvalue = [5, 6]\nclass = 1", fillcolor="#399de52a"] ;
64 -> 65 ;
66 [label="Salary <= 48000.0\nentropy = 0.72\nsamples = 5\nvalue = [1, 4]\nclass = 1", fillcolor="#399de5bf"] ;
65 -> 66 ;
67 [label="Age <= 46.0\nentropy = 1.0\nsamples = 2\nvalue = [1, 1]\nclass = 0", fillcolor="#e5813900"] ;
66 -> 67 ;
68 [label="entropy = 0.0\nsamples = 1\nvalue = [0, 1]\nclass = 1", fillcolor="#399de5ff"] ;
67 -> 68 ;
69 [label="entropy = 0.0\nsamples = 1\nvalue = [1, 0]\nclass = 0", fillcolor="#e58139ff"] ;
67 -> 69 ;
70 [label="entropy = 0.0\nsamples = 3\nvalue = [0, 3]\nclass = 1", fillcolor="#399de5ff"] ;
66 -> 70 ;
71 [label="Age <= 47.0\nentropy = 0.92\nsamples = 6\nvalue = [4, 2]\nclass = 0", fillcolor="#e581397f"] ;
65 -> 71 ;
72 [label="Gender <= 0.5\nentropy = 0.72\nsamples = 5\nvalue = [4, 1]\nclass = 0", fillcolor="#e58139bf"] ;
71 -> 72 ;
73 [label="entropy = 0.0\nsamples = 2\nvalue = [2, 0]\nclass = 0", fillcolor="#e58139ff"] ;
72 -> 73 ;
74 [label="Salary <= 69000.0\nentropy = 0.92\nsamples = 3\nvalue = [2, 1]\nclass = 0", fillcolor="#e581397f"] ;
72 -> 74 ;
75 [label="entropy = 0.0\nsamples = 1\nvalue = [1, 0]\nclass = 0", fillcolor="#e58139ff"] ;
74 -> 75 ;
76 [label="Age <= 45.5\nentropy = 1.0\nsamples = 2\nvalue = [1, 1]\nclass = 0", fillcolor="#e5813900"] ;
74 -> 76 ;
77 [label="entropy = 0.0\nsamples = 1\nvalue = [1, 0]\nclass = 0", fillcolor="#e58139ff"] ;
76 -> 77 ;
78 [label="entropy = 0.0\nsamples = 1\nvalue = [0, 1]\nclass = 1", fillcolor="#399de5ff"] ;
76 -> 78 ;
79 [label="entropy = 0.0\nsamples = 1\nvalue = [0, 1]\nclass = 1", fillcolor="#399de5ff"] ;
71 -> 79 ;
80 [label="entropy = 0.0\nsamples = 3\nvalue = [3, 0]\nclass = 0", fillcolor="#e58139ff"] ;
64 -> 80 ;
81 [label="Salary <= 93000.0\nentropy = 0.72\nsamples = 20\nvalue = [4, 16]\nclass = 1", fillcolor="#399de5bf"] ;
63 -> 81 ;
82 [label="entropy = 0.0\nsamples = 5\nvalue = [0, 5]\nclass = 1", fillcolor="#399de5ff"] ;
81 -> 82 ;
83 [label="Salary <= 115500.0\nentropy = 0.84\nsamples = 15\nvalue = [4, 11]\nclass = 1", fillcolor="#399de5a2"] ;
81 -> 83 ;
84 [label="Age <= 46.5\nentropy = 1.0\nsamples = 4\nvalue = [2, 2]\nclass = 0", fillcolor="#e5813900"] ;
83 -> 84 ;
85 [label="entropy = 0.0\nsamples = 1\nvalue = [1, 0]\nclass = 0", fillcolor="#e58139ff"] ;
84 -> 85 ;
86 [label="Salary <= 113500.0\nentropy = 0.92\nsamples = 3\nvalue = [1, 2]\nclass = 1", fillcolor="#399de57f"] ;
84 -> 86 ;
87 [label="entropy = 0.0\nsamples = 2\nvalue = [0, 2]\nclass = 1", fillcolor="#399de5ff"] ;
86 -> 87 ;
88 [label="entropy = 0.0\nsamples = 1\nvalue = [1, 0]\nclass = 0", fillcolor="#e58139ff"] ;
86 -> 88 ;
89 [label="Salary <= 132500.0\nentropy = 0.68\nsamples = 11\nvalue = [2, 9]\nclass = 1", fillcolor="#399de5c6"] ;
83 -> 89 ;
90 [label="entropy = 0.0\nsamples = 4\nvalue = [0, 4]\nclass = 1", fillcolor="#399de5ff"] ;
89 -> 90 ;
91 [label="Salary <= 143500.0\nentropy = 0.86\nsamples = 7\nvalue = [2, 5]\nclass = 1", fillcolor="#399de599"] ;
89 -> 91 ;
92 [label="Salary <= 139500.0\nentropy = 0.97\nsamples = 5\nvalue = [2, 3]\nclass = 1", fillcolor="#399de555"] ;
91 -> 92 ;
93 [label="Salary <= 136000.0\nentropy = 0.81\nsamples = 4\nvalue = [1, 3]\nclass = 1", fillcolor="#399de5aa"] ;
92 -> 93 ;
94 [label="Age <= 49.5\nentropy = 1.0\nsamples = 2\nvalue = [1, 1]\nclass = 0", fillcolor="#e5813900"] ;
93 -> 94 ;
95 [label="entropy = 0.0\nsamples = 1\nvalue = [0, 1]\nclass = 1", fillcolor="#399de5ff"] ;
94 -> 95 ;
96 [label="entropy = 0.0\nsamples = 1\nvalue = [1, 0]\nclass = 0", fillcolor="#e58139ff"] ;
94 -> 96 ;
97 [label="entropy = 0.0\nsamples = 2\nvalue = [0, 2]\nclass = 1", fillcolor="#399de5ff"] ;
93 -> 97 ;
98 [label="entropy = 0.0\nsamples = 1\nvalue = [1, 0]\nclass = 0", fillcolor="#e58139ff"] ;
92 -> 98 ;
99 [label="entropy = 0.0\nsamples = 2\nvalue = [0, 2]\nclass = 1", fillcolor="#399de5ff"] ;
91 -> 99 ;
100 [label="Age <= 58.5\nentropy = 0.4\nsamples = 25\nvalue = [2, 23]\nclass = 1", fillcolor="#399de5e9"] ;
62 -> 100 ;
101 [label="entropy = 0.0\nsamples = 16\nvalue = [0, 16]\nclass = 1", fillcolor="#399de5ff"] ;
100 -> 101 ;
102 [label="Age <= 59.5\nentropy = 0.76\nsamples = 9\nvalue = [2, 7]\nclass = 1", fillcolor="#399de5b6"] ;
100 -> 102 ;
103 [label="Salary <= 106500.0\nentropy = 0.97\nsamples = 5\nvalue = [2, 3]\nclass = 1", fillcolor="#399de555"] ;
102 -> 103 ;
104 [label="Salary <= 59000.0\nentropy = 0.92\nsamples = 3\nvalue = [2, 1]\nclass = 0", fillcolor="#e581397f"] ;
103 -> 104 ;
105 [label="entropy = 0.0\nsamples = 1\nvalue = [1, 0]\nclass = 0", fillcolor="#e58139ff"] ;
104 -> 105 ;
106 [label="Salary <= 79500.0\nentropy = 1.0\nsamples = 2\nvalue = [1, 1]\nclass = 0", fillcolor="#e5813900"] ;
104 -> 106 ;
107 [label="entropy = 0.0\nsamples = 1\nvalue = [0, 1]\nclass = 1", fillcolor="#399de5ff"] ;
106 -> 107 ;
108 [label="entropy = 0.0\nsamples = 1\nvalue = [1, 0]\nclass = 0", fillcolor="#e58139ff"] ;
106 -> 108 ;
109 [label="entropy = 0.0\nsamples = 2\nvalue = [0, 2]\nclass = 1", fillcolor="#399de5ff"] ;
103 -> 109 ;
110 [label="entropy = 0.0\nsamples = 4\nvalue = [0, 4]\nclass = 1", fillcolor="#399de5ff"] ;
102 -> 110 ;
}